<?xml version="1.0" encoding="UTF-8" standalone="yes"?>
<PMML xmlns="http://www.dmg.org/PMML-4_4" xmlns:data="http://jpmml.org/jpmml-model/InlineTable" version="4.4">
	<Header>
		<Application name="SkLearn2PMML package" version="0.117.0"/>
		<Timestamp>2025-05-21T13:02:54Z</Timestamp>
	</Header>
	<MiningBuildTask>
		<Extension name="repr">PMMLPipeline(steps=[('regressor', RandomForestRegressor(max_depth=15, n_estimators=200, n_jobs=-1,
                      random_state=42))])</Extension>
	</MiningBuildTask>
	<DataDictionary>
		<DataField name="y" optype="continuous" dataType="double"/>
		<DataField name="GPUs_Num" optype="continuous" dataType="float"/>
		<DataField name="vCPUs_Num" optype="continuous" dataType="float"/>
		<DataField name="Memory_GiB" optype="continuous" dataType="float"/>
		<DataField name="Storage_GB" optype="continuous" dataType="float"/>
		<DataField name="Network_Gb" optype="continuous" dataType="float"/>
	</DataDictionary>
	<MiningModel functionName="regression" algorithmName="sklearn.ensemble._forest.RandomForestRegressor">
		<MiningSchema>
			<MiningField name="y" usageType="target"/>
			<MiningField name="vCPUs_Num"/>
			<MiningField name="Storage_GB"/>
			<MiningField name="Memory_GiB"/>
			<MiningField name="Network_Gb"/>
			<MiningField name="GPUs_Num"/>
		</MiningSchema>
		<LocalTransformations>
			<DerivedField name="double(vCPUs_Num)" optype="continuous" dataType="double">
				<FieldRef field="vCPUs_Num"/>
			</DerivedField>
			<DerivedField name="double(Storage_GB)" optype="continuous" dataType="double">
				<FieldRef field="Storage_GB"/>
			</DerivedField>
			<DerivedField name="double(Memory_GiB)" optype="continuous" dataType="double">
				<FieldRef field="Memory_GiB"/>
			</DerivedField>
			<DerivedField name="double(Network_Gb)" optype="continuous" dataType="double">
				<FieldRef field="Network_Gb"/>
			</DerivedField>
			<DerivedField name="double(GPUs_Num)" optype="continuous" dataType="double">
				<FieldRef field="GPUs_Num"/>
			</DerivedField>
		</LocalTransformations>
		<Segmentation multipleModelMethod="average" missingPredictionTreatment="returnMissing">
			<Segment id="1">
				<True/>
				<TreeModel functionName="regression" missingValueStrategy="nullPrediction" noTrueChildStrategy="returnLastPrediction">
					<MiningSchema>
						<MiningField name="double(vCPUs_Num)"/>
						<MiningField name="double(Storage_GB)"/>
						<MiningField name="double(Memory_GiB)"/>
						<MiningField name="double(Network_Gb)"/>
						<MiningField name="double(GPUs_Num)"/>
					</MiningSchema>
					<Node score="7.2576">
						<True/>
						<Node score="2.1773">
							<SimplePredicate field="double(vCPUs_Num)" operator="lessOrEqual" value="40.0"/>
							<Node score="1.6672">
								<SimplePredicate field="double(vCPUs_Num)" operator="lessOrEqual" value="12.0"/>
								<Node score="0.8048">
									<SimplePredicate field="double(vCPUs_Num)" operator="lessOrEqual" value="6.0"/>
									<Node score="0.3908">
										<SimplePredicate field="double(Storage_GB)" operator="lessOrEqual" value="243.5"/>
										<Node score="0.167">
											<SimplePredicate field="double(vCPUs_Num)" operator="lessOrEqual" value="3.0"/>
											<Node score="0.1068">
												<SimplePredicate field="double(Memory_GiB)" operator="lessOrEqual" value="12.0"/>
												<Node score="0.068">
													<SimplePredicate field="double(vCPUs_Num)" operator="lessOrEqual" value="1.5"/>
													<Node score="0.0454">
														<SimplePredicate field="double(Memory_GiB)" operator="lessOrEqual" value="6.0"/>
														<Node score="0.0452">
															<SimplePredicate field="double(Network_Gb)" operator="lessOrEqual" value="11.25"/>
															<Node score="0.0384">
																<SimplePredicate field="double(Memory_GiB)" operator="lessOrEqual" value="3.0"/>
															</Node>
														</Node>
													</Node>
													<Node score="0.0576">
														<SimplePredicate field="double(Network_Gb)" operator="lessOrEqual" value="11.25"/>
													</Node>
												</Node>
												<Node score="0.09406666666666667">
													<SimplePredicate field="double(Memory_GiB)" operator="lessOrEqual" value="6.0"/>
													<Node score="0.0768">
														<SimplePredicate field="double(Network_Gb)" operator="lessOrEqual" value="11.25"/>
														<Node score="0.086">
															<SimplePredicate field="double(Storage_GB)" operator="lessOrEqual" value="96.5"/>
														</Node>
													</Node>
												</Node>
												<Node score="0.103">
													<SimplePredicate field="double(Network_Gb)" operator="lessOrEqual" value="11.25"/>
												</Node>
											</Node>
											<Node score="0.144">
												<SimplePredicate field="double(Network_Gb)" operator="lessOrEqual" value="17.5"/>
											</Node>
										</Node>
										<Node score="0.3785">
											<SimplePredicate field="double(Network_Gb)" operator="lessOrEqual" value="27.5"/>
											<Node score="0.2304">
												<SimplePredicate field="double(GPUs_Num)" operator="lessOrEqual" value="0.5"/>
												<Node score="0.1536">
													<SimplePredicate field="double(Memory_GiB)" operator="lessOrEqual" value="12.0"/>
												</Node>
												<Node score="0.272">
													<SimplePredicate field="double(Memory_GiB)" operator="lessOrEqual" value="24.0"/>
													<Node score="0.2136">
														<SimplePredicate field="double(Network_Gb)" operator="lessOrEqual" value="18.75"/>
														<Node score="0.206">
															<SimplePredicate field="double(Storage_GB)" operator="lessOrEqual" value="193.5"/>
														</Node>
													</Node>
												</Node>
												<Node score="0.288">
													<SimplePredicate field="double(Storage_GB)" operator="lessOrEqual" value="193.5"/>
												</Node>
											</Node>
										</Node>
										<Node score="0.3182">
											<SimplePredicate field="double(Memory_GiB)" operator="lessOrEqual" value="24.0"/>
										</Node>
									</Node>
								</Node>
								<Node score="1.212">
									<SimplePredicate field="double(Memory_GiB)" operator="lessOrEqual" value="160.0"/>
									<Node score="0.6365">
										<SimplePredicate field="double(GPUs_Num)" operator="lessOrEqual" value="0.5"/>
										<Node score="0.3629">
											<SimplePredicate field="double(Memory_GiB)" operator="lessOrEqual" value="24.0"/>
											<Node score="0.344">
												<SimplePredicate field="double(Storage_GB)" operator="lessOrEqual" value="387.0"/>
											</Node>
											<Node score="0.4032">
												<SimplePredicate field="double(Network_Gb)" operator="lessOrEqual" value="13.75"/>
											</Node>
										</Node>
										<Node score="0.6048">
											<SimplePredicate field="double(Network_Gb)" operator="lessOrEqual" value="32.5"/>
											<Node score="0.4608">
												<SimplePredicate field="double(Network_Gb)" operator="lessOrEqual" value="11.25"/>
												<Node score="0.55">
													<SimplePredicate field="double(Storage_GB)" operator="lessOrEqual" value="387.0"/>
												</Node>
											</Node>
											<Node score="0.4746">
												<SimplePredicate field="double(Memory_GiB)" operator="lessOrEqual" value="48.0"/>
												<Node score="0.544">
													<SimplePredicate field="double(Storage_GB)" operator="lessOrEqual" value="387.0"/>
												</Node>
											</Node>
										</Node>
									</Node>
									<Node score="0.5412">
										<SimplePredicate field="double(Storage_GB)" operator="lessOrEqual" value="375.0"/>
										<Node score="0.752">
											<SimplePredicate field="double(Storage_GB)" operator="lessOrEqual" value="262.5"/>
										</Node>
									</Node>
								</Node>
							</Node>
							<Node score="1.5392">
								<SimplePredicate field="double(vCPUs_Num)" operator="lessOrEqual" value="24.0"/>
								<Node score="1.0886">
									<SimplePredicate field="double(Network_Gb)" operator="lessOrEqual" value="17.5"/>
									<Node score="0.8543">
										<SimplePredicate field="double(Memory_GiB)" operator="lessOrEqual" value="96.0"/>
										<Node score="0.7258">
											<SimplePredicate field="double(Memory_GiB)" operator="lessOrEqual" value="48.0"/>
											<Node score="0.8064">
												<SimplePredicate field="double(Network_Gb)" operator="lessOrEqual" value="13.75"/>
											</Node>
										</Node>
										<Node score="0.867">
											<SimplePredicate field="double(Storage_GB)" operator="lessOrEqual" value="775.0"/>
											<Node score="0.824">
												<SimplePredicate field="double(GPUs_Num)" operator="lessOrEqual" value="0.5"/>
											</Node>
										</Node>
										<Node score="0.9492">
											<SimplePredicate field="double(Network_Gb)" operator="lessOrEqual" value="13.75"/>
										</Node>
									</Node>
									<Node score="0.9216">
										<SimplePredicate field="double(Network_Gb)" operator="lessOrEqual" value="11.25"/>
										<Node score="1.1173333333333333">
											<SimplePredicate field="double(Storage_GB)" operator="lessOrEqual" value="775.0"/>
										</Node>
									</Node>
									<Node score="1.2096">
										<SimplePredicate field="double(Network_Gb)" operator="lessOrEqual" value="13.75"/>
									</Node>
								</Node>
								<Node score="3.0042">
									<SimplePredicate field="double(Network_Gb)" operator="lessOrEqual" value="22.5"/>
								</Node>
								<Node score="1.336">
									<SimplePredicate field="double(GPUs_Num)" operator="lessOrEqual" value="0.5"/>
									<Node score="1.088">
										<SimplePredicate field="double(Memory_GiB)" operator="lessOrEqual" value="96.0"/>
									</Node>
								</Node>
								<Node score="1.204">
									<SimplePredicate field="double(Storage_GB)" operator="lessOrEqual" value="412.5"/>
								</Node>
								<Node score="1.4736">
									<SimplePredicate field="double(Memory_GiB)" operator="lessOrEqual" value="96.0"/>
								</Node>
							</Node>
							<Node score="2.4464">
								<SimplePredicate field="double(Storage_GB)" operator="lessOrEqual" value="1050.0"/>
								<Node score="2.448">
									<SimplePredicate field="double(Memory_GiB)" operator="lessOrEqual" value="192.0"/>
								</Node>
							</Node>
							<Node score="1.734">
								<SimplePredicate field="double(Memory_GiB)" operator="lessOrEqual" value="192.0"/>
								<Node score="1.4515">
									<SimplePredicate field="double(Memory_GiB)" operator="lessOrEqual" value="96.0"/>
									<Node score="1.6128">
										<SimplePredicate field="double(Network_Gb)" operator="lessOrEqual" value="13.75"/>
									</Node>
								</Node>
								<Node score="1.4464">
									<SimplePredicate field="double(Network_Gb)" operator="lessOrEqual" value="12.25"/>
									<Node score="1.728">
										<SimplePredicate field="double(Storage_GB)" operator="lessOrEqual" value="1550.0"/>
									</Node>
								</Node>
								<Node score="1.8984">
									<SimplePredicate field="double(Network_Gb)" operator="lessOrEqual" value="13.75"/>
								</Node>
								<Node score="1.7086">
									<SimplePredicate field="double(GPUs_Num)" operator="lessOrEqual" value="1.0"/>
								</Node>
							</Node>
							<Node score="2.672">
								<SimplePredicate field="double(Network_Gb)" operator="lessOrEqual" value="13.5"/>
							</Node>
						</Node>
						<Node score="5.672">
							<SimplePredicate field="double(Memory_GiB)" operator="lessOrEqual" value="640.0"/>
							<Node score="5.424">
								<SimplePredicate field="double(Network_Gb)" operator="lessOrEqual" value="32.5"/>
								<Node score="2.7648">
									<SimplePredicate field="double(vCPUs_Num)" operator="lessOrEqual" value="56.0"/>
									<Node score="2.5628">
										<SimplePredicate field="double(Memory_GiB)" operator="lessOrEqual" value="288.0"/>
										<Node score="2.8476">
											<SimplePredicate field="double(Network_Gb)" operator="lessOrEqual" value="19.375"/>
											<Node score="2.4192">
												<SimplePredicate field="double(Memory_GiB)" operator="lessOrEqual" value="144.0"/>
											</Node>
											<Node score="2.472">
												<SimplePredicate field="double(Storage_GB)" operator="lessOrEqual" value="2325.0"/>
											</Node>
										</Node>
										<Node score="2.1696">
											<SimplePredicate field="double(Network_Gb)" operator="lessOrEqual" value="21.25"/>
											<Node score="1.8432">
												<SimplePredicate field="double(Memory_GiB)" operator="lessOrEqual" value="144.0"/>
											</Node>
										</Node>
										<Node score="2.1773">
											<SimplePredicate field="double(Memory_GiB)" operator="lessOrEqual" value="144.0"/>
										</Node>
									</Node>
									<Node score="3.6288">
										<SimplePredicate field="double(Network_Gb)" operator="lessOrEqual" value="19.375"/>
										<Node score="3.456">
											<SimplePredicate field="double(Network_Gb)" operator="lessOrEqual" value="15.375"/>
										</Node>
									</Node>
								</Node>
								<Node score="4.3546">
									<SimplePredicate field="double(vCPUs_Num)" operator="lessOrEqual" value="84.0"/>
									<Node score="3.4171">
										<SimplePredicate field="double(Memory_GiB)" operator="lessOrEqual" value="384.0"/>
										<Node score="3.456">
											<SimplePredicate field="double(Storage_GB)" operator="lessOrEqual" value="2840.0"/>
											<Node score="3.3968">
												<SimplePredicate field="double(vCPUs_Num)" operator="lessOrEqual" value="68.0"/>
											</Node>
										</Node>
										<Node score="2.8928">
											<SimplePredicate field="double(Network_Gb)" operator="lessOrEqual" value="27.5"/>
											<Node score="2.4576">
												<SimplePredicate field="double(Memory_GiB)" operator="lessOrEqual" value="192.0"/>
											</Node>
										</Node>
										<Node score="2.903">
											<SimplePredicate field="double(Memory_GiB)" operator="lessOrEqual" value="192.0"/>
										</Node>
									</Node>
									<Node score="4.608">
										<SimplePredicate field="double(Storage_GB)" operator="lessOrEqual" value="3100.0"/>
									</Node>
									<Node score="3.6864">
										<SimplePredicate field="double(Network_Gb)" operator="lessOrEqual" value="27.5"/>
									</Node>
								</Node>
								<Node score="4.608">
									<SimplePredicate field="double(Memory_GiB)" operator="lessOrEqual" value="288.0"/>
									<Node score="4.128">
										<SimplePredicate field="double(Network_Gb)" operator="lessOrEqual" value="22.5"/>
									</Node>
								</Node>
							</Node>
							<Node score="7.5772">
								<SimplePredicate field="double(Storage_GB)" operator="lessOrEqual" value="2830.0"/>
							</Node>
							<Node score="4.6016">
								<SimplePredicate field="double(Storage_GB)" operator="lessOrEqual" value="3780.0"/>
							</Node>
						</Node>
						<Node score="6.288">
							<SimplePredicate field="double(Network_Gb)" operator="lessOrEqual" value="22.5"/>
						</Node>
						<Node score="6.912">
							<SimplePredicate field="double(Network_Gb)" operator="lessOrEqual" value="31.25"/>
						</Node>
					</Node>
				</TreeModel>
			</Segment>
			<Segment id="2">
				<True/>
				<TreeModel functionName="regression" missingValueStrategy="nullPrediction" noTrueChildStrategy="returnLastPrediction">
					<MiningSchema>
						<MiningField name="double(vCPUs_Num)"/>
						<MiningField name="double(Storage_GB)"/>
						<MiningField name="double(Memory_GiB)"/>
						<MiningField name="double(Network_Gb)"/>
						<MiningField name="double(GPUs_Num)"/>
					</MiningSchema>
					<Node score="6.912">
						<True/>
						<Node score="2.903">
							<SimplePredicate field="double(Memory_GiB)" operator="lessOrEqual" value="160.0"/>
							<Node score="1.3232">
								<SimplePredicate field="double(Memory_GiB)" operator="lessOrEqual" value="80.0"/>
								<Node score="0.334">
									<SimplePredicate field="double(Storage_GB)" operator="lessOrEqual" value="243.5"/>
									<Node score="0.1954">
										<SimplePredicate field="double(vCPUs_Num)" operator="lessOrEqual" value="3.0"/>
										<Node score="0.11275">
											<SimplePredicate field="double(Memory_GiB)" operator="lessOrEqual" value="12.0"/>
											<Node score="0.068">
												<SimplePredicate field="double(Storage_GB)" operator="lessOrEqual" value="67.0"/>
												<Node score="0.0576">
													<SimplePredicate field="double(Network_Gb)" operator="lessOrEqual" value="11.25"/>
													<Node score="0.0452">
														<SimplePredicate field="double(Memory_GiB)" operator="lessOrEqual" value="6.0"/>
													</Node>
												</Node>
											</Node>
											<Node score="0.09743333333333333">
												<SimplePredicate field="double(Memory_GiB)" operator="lessOrEqual" value="6.0"/>
												<Node score="0.0768">
													<SimplePredicate field="double(Network_Gb)" operator="lessOrEqual" value="11.25"/>
													<Node score="0.086">
														<SimplePredicate field="double(Storage_GB)" operator="lessOrEqual" value="96.5"/>
													</Node>
												</Node>
											</Node>
											<Node score="0.103">
												<SimplePredicate field="double(Network_Gb)" operator="lessOrEqual" value="11.25"/>
											</Node>
										</Node>
										<Node score="0.0835">
											<SimplePredicate field="double(Storage_GB)" operator="lessOrEqual" value="67.0"/>
										</Node>
										<Node score="0.139875">
											<SimplePredicate field="double(Network_Gb)" operator="lessOrEqual" value="18.75"/>
											<Node score="0.144">
												<SimplePredicate field="double(Storage_GB)" operator="lessOrEqual" value="96.5"/>
											</Node>
										</Node>
										<Node score="0.167">
											<SimplePredicate field="double(Storage_GB)" operator="lessOrEqual" value="96.5"/>
										</Node>
									</Node>
									<Node score="0.1536">
										<SimplePredicate field="double(Memory_GiB)" operator="lessOrEqual" value="12.0"/>
									</Node>
									<Node score="0.3785">
										<SimplePredicate field="double(Storage_GB)" operator="lessOrEqual" value="193.5"/>
									</Node>
									<Node score="0.3182">
										<SimplePredicate field="double(Memory_GiB)" operator="lessOrEqual" value="48.0"/>
										<Node score="0.2722">
											<SimplePredicate field="double(Network_Gb)" operator="lessOrEqual" value="21.25"/>
											<Node score="0.23040000000000002">
												<SimplePredicate field="double(Network_Gb)" operator="lessOrEqual" value="11.25"/>
												<Node score="0.1808">
													<SimplePredicate field="double(Memory_GiB)" operator="lessOrEqual" value="24.0"/>
												</Node>
											</Node>
											<Node score="0.2373">
												<SimplePredicate field="double(Memory_GiB)" operator="lessOrEqual" value="24.0"/>
											</Node>
										</Node>
									</Node>
								</Node>
								<Node score="0.9776">
									<SimplePredicate field="double(Memory_GiB)" operator="lessOrEqual" value="48.0"/>
									<Node score="0.7258">
										<SimplePredicate field="double(GPUs_Num)" operator="lessOrEqual" value="0.5"/>
										<Node score="0.3629">
											<SimplePredicate field="double(Memory_GiB)" operator="lessOrEqual" value="24.0"/>
											<Node score="0.3072">
												<SimplePredicate field="double(Network_Gb)" operator="lessOrEqual" value="11.25"/>
												<Node score="0.344">
													<SimplePredicate field="double(Storage_GB)" operator="lessOrEqual" value="387.0"/>
												</Node>
											</Node>
											<Node score="0.4032">
												<SimplePredicate field="double(Network_Gb)" operator="lessOrEqual" value="13.75"/>
											</Node>
										</Node>
										<Node score="0.6365">
											<SimplePredicate field="double(vCPUs_Num)" operator="lessOrEqual" value="12.0"/>
											<Node score="0.4746">
												<SimplePredicate field="double(Network_Gb)" operator="lessOrEqual" value="26.25"/>
												<Node score="0.412">
													<SimplePredicate field="double(Network_Gb)" operator="lessOrEqual" value="11.25"/>
												</Node>
											</Node>
										</Node>
										<Node score="0.8064">
											<SimplePredicate field="double(Network_Gb)" operator="lessOrEqual" value="13.75"/>
											<Node score="0.688">
												<SimplePredicate field="double(Network_Gb)" operator="lessOrEqual" value="11.25"/>
												<Node score="0.768">
													<SimplePredicate field="double(Storage_GB)" operator="lessOrEqual" value="500.0"/>
												</Node>
											</Node>
										</Node>
									</Node>
									<Node score="0.9054">
										<SimplePredicate field="double(vCPUs_Num)" operator="lessOrEqual" value="6.0"/>
									</Node>
									<Node score="0.5412">
										<SimplePredicate field="double(Storage_GB)" operator="lessOrEqual" value="375.0"/>
									</Node>
								</Node>
								<Node score="1.6128">
									<SimplePredicate field="double(GPUs_Num)" operator="lessOrEqual" value="0.5"/>
									<Node score="0.6048">
										<SimplePredicate field="double(Storage_GB)" operator="lessOrEqual" value="537.0"/>
										<Node score="0.4608">
											<SimplePredicate field="double(Network_Gb)" operator="lessOrEqual" value="11.25"/>
											<Node score="0.524">
												<SimplePredicate field="double(Storage_GB)" operator="lessOrEqual" value="387.0"/>
											</Node>
										</Node>
									</Node>
									<Node score="1.088">
										<SimplePredicate field="double(vCPUs_Num)" operator="lessOrEqual" value="24.0"/>
									</Node>
									<Node score="1.2288">
										<SimplePredicate field="double(Network_Gb)" operator="lessOrEqual" value="12.25"/>
										<Node score="1.376">
											<SimplePredicate field="double(Storage_GB)" operator="lessOrEqual" value="1550.0"/>
										</Node>
									</Node>
								</Node>
								<Node score="2.2421">
									<SimplePredicate field="double(vCPUs_Num)" operator="lessOrEqual" value="12.0"/>
								</Node>
							</Node>
							<Node score="1.734">
								<SimplePredicate field="double(Storage_GB)" operator="lessOrEqual" value="2150.0"/>
								<Node score="1.7086">
									<SimplePredicate field="double(GPUs_Num)" operator="lessOrEqual" value="0.5"/>
									<Node score="2.064">
										<SimplePredicate field="double(Memory_GiB)" operator="lessOrEqual" value="112.0"/>
									</Node>
									<Node score="1.2096">
										<SimplePredicate field="double(vCPUs_Num)" operator="lessOrEqual" value="24.0"/>
										<Node score="1.048">
											<SimplePredicate field="double(Network_Gb)" operator="lessOrEqual" value="11.25"/>
										</Node>
										<Node score="1.336">
											<SimplePredicate field="double(Storage_GB)" operator="lessOrEqual" value="775.0"/>
										</Node>
									</Node>
									<Node score="1.4464">
										<SimplePredicate field="double(Network_Gb)" operator="lessOrEqual" value="13.5"/>
										<Node score="1.648">
											<SimplePredicate field="double(Network_Gb)" operator="lessOrEqual" value="11.0"/>
										</Node>
									</Node>
								</Node>
								<Node score="3.0042">
									<SimplePredicate field="double(vCPUs_Num)" operator="lessOrEqual" value="24.0"/>
								</Node>
								<Node score="2.0144">
									<SimplePredicate field="double(Storage_GB)" operator="lessOrEqual" value="1050.0"/>
								</Node>
							</Node>
							<Node score="1.8432">
								<SimplePredicate field="double(vCPUs_Num)" operator="lessOrEqual" value="56.0"/>
								<Node score="2.4192">
									<SimplePredicate field="double(Network_Gb)" operator="lessOrEqual" value="19.375"/>
								</Node>
							</Node>
							<Node score="2.4576">
								<SimplePredicate field="double(Network_Gb)" operator="lessOrEqual" value="27.5"/>
								<Node score="2.752">
									<SimplePredicate field="double(Network_Gb)" operator="lessOrEqual" value="22.5"/>
								</Node>
							</Node>
						</Node>
						<Node score="3.4171">
							<SimplePredicate field="double(Memory_GiB)" operator="lessOrEqual" value="448.0"/>
							<Node score="3.6288">
								<SimplePredicate field="double(Storage_GB)" operator="lessOrEqual" value="3225.0"/>
								<Node score="4.5286">
									<SimplePredicate field="double(Storage_GB)" operator="lessOrEqual" value="1050.0"/>
								</Node>
								<Node score="3.3968">
									<SimplePredicate field="double(Memory_GiB)" operator="lessOrEqual" value="320.0"/>
									<Node score="2.5628">
										<SimplePredicate field="double(vCPUs_Num)" operator="lessOrEqual" value="56.0"/>
										<Node score="2.1773">
											<SimplePredicate field="double(Network_Gb)" operator="lessOrEqual" value="21.25"/>
											<Node score="2.712">
												<SimplePredicate field="double(Network_Gb)" operator="lessOrEqual" value="13.5"/>
												<Node score="2.304">
													<SimplePredicate field="double(vCPUs_Num)" operator="lessOrEqual" value="40.0"/>
												</Node>
											</Node>
											<Node score="2.1696">
												<SimplePredicate field="double(Memory_GiB)" operator="lessOrEqual" value="224.0"/>
											</Node>
										</Node>
										<Node score="2.672">
											<SimplePredicate field="double(Storage_GB)" operator="lessOrEqual" value="2025.0"/>
										</Node>
									</Node>
								</Node>
								<Node score="3.456">
									<SimplePredicate field="double(Network_Gb)" operator="lessOrEqual" value="15.375"/>
								</Node>
							</Node>
							<Node score="4.8384">
								<SimplePredicate field="double(Memory_GiB)" operator="lessOrEqual" value="224.0"/>
								<Node score="4.608">
									<SimplePredicate field="double(Network_Gb)" operator="lessOrEqual" value="31.25"/>
									<Node score="4.128">
										<SimplePredicate field="double(Network_Gb)" operator="lessOrEqual" value="22.5"/>
									</Node>
								</Node>
								<Node score="4.6016">
									<SimplePredicate field="double(Storage_GB)" operator="lessOrEqual" value="3780.0"/>
								</Node>
								<Node score="5.672">
									<SimplePredicate field="double(Storage_GB)" operator="lessOrEqual" value="4750.0"/>
								</Node>
							</Node>
							<Node score="3.0736">
								<SimplePredicate field="double(Network_Gb)" operator="lessOrEqual" value="27.5"/>
							</Node>
						</Node>
						<Node score="7.5772">
							<SimplePredicate field="double(vCPUs_Num)" operator="lessOrEqual" value="80.0"/>
							<Node score="4.3546">
								<SimplePredicate field="double(GPUs_Num)" operator="lessOrEqual" value="0.5"/>
								<Node score="2.672">
									<SimplePredicate field="double(Storage_GB)" operator="lessOrEqual" value="2150.0"/>
								</Node>
								<Node score="4.608">
									<SimplePredicate field="double(Storage_GB)" operator="lessOrEqual" value="2625.0"/>
								</Node>
								<Node score="4.1472">
									<SimplePredicate field="double(Network_Gb)" operator="lessOrEqual" value="27.5"/>
									<Node score="4.008">
										<SimplePredicate field="double(Network_Gb)" operator="lessOrEqual" value="22.5"/>
									</Node>
								</Node>
							</Node>
						</Node>
						<Node score="6.288">
							<SimplePredicate field="double(Network_Gb)" operator="lessOrEqual" value="22.5"/>
						</Node>
					</Node>
				</TreeModel>
			</Segment>
			<Segment id="3">
				<True/>
				<TreeModel functionName="regression" missingValueStrategy="nullPrediction" noTrueChildStrategy="returnLastPrediction">
					<MiningSchema>
						<MiningField name="double(vCPUs_Num)"/>
						<MiningField name="double(Storage_GB)"/>
						<MiningField name="double(Memory_GiB)"/>
						<MiningField name="double(Network_Gb)"/>
						<MiningField name="double(GPUs_Num)"/>
					</MiningSchema>
					<Node score="6.912">
						<True/>
						<Node score="1.4234666666666669">
							<SimplePredicate field="double(Memory_GiB)" operator="lessOrEqual" value="84.0"/>
							<Node score="1.204">
								<SimplePredicate field="double(Storage_GB)" operator="lessOrEqual" value="243.5"/>
								<Node score="0.3785">
									<SimplePredicate field="double(vCPUs_Num)" operator="lessOrEqual" value="10.0"/>
									<Node score="0.1954">
										<SimplePredicate field="double(vCPUs_Num)" operator="lessOrEqual" value="3.0"/>
										<Node score="0.1068">
											<SimplePredicate field="double(Memory_GiB)" operator="lessOrEqual" value="12.0"/>
											<Node score="0.068">
												<SimplePredicate field="double(vCPUs_Num)" operator="lessOrEqual" value="1.5"/>
												<Node score="0.0454">
													<SimplePredicate field="double(Memory_GiB)" operator="lessOrEqual" value="5.0"/>
												</Node>
											</Node>
											<Node score="0.0907">
												<SimplePredicate field="double(Memory_GiB)" operator="lessOrEqual" value="6.0"/>
												<Node score="0.096">
													<SimplePredicate field="double(Storage_GB)" operator="lessOrEqual" value="62.5"/>
												</Node>
												<Node score="0.0768">
													<SimplePredicate field="double(Network_Gb)" operator="lessOrEqual" value="11.25"/>
													<Node score="0.086">
														<SimplePredicate field="double(Storage_GB)" operator="lessOrEqual" value="96.5"/>
													</Node>
												</Node>
											</Node>
											<Node score="0.103">
												<SimplePredicate field="double(Storage_GB)" operator="lessOrEqual" value="96.5"/>
											</Node>
										</Node>
										<Node score="0.167">
											<SimplePredicate field="double(Network_Gb)" operator="lessOrEqual" value="18.75"/>
											<Node score="0.1512">
												<SimplePredicate field="double(Memory_GiB)" operator="lessOrEqual" value="24.0"/>
												<Node score="0.144">
													<SimplePredicate field="double(Network_Gb)" operator="lessOrEqual" value="11.25"/>
												</Node>
											</Node>
										</Node>
									</Node>
									<Node score="0.334">
										<SimplePredicate field="double(GPUs_Num)" operator="lessOrEqual" value="0.5"/>
										<Node score="0.3182">
											<SimplePredicate field="double(Memory_GiB)" operator="lessOrEqual" value="48.0"/>
											<Node score="0.2722">
												<SimplePredicate field="double(Network_Gb)" operator="lessOrEqual" value="21.25"/>
												<Node score="0.22150000000000003">
													<SimplePredicate field="double(Memory_GiB)" operator="lessOrEqual" value="24.0"/>
													<Node score="0.2016">
														<SimplePredicate field="double(Memory_GiB)" operator="lessOrEqual" value="12.0"/>
													</Node>
													<Node score="0.206">
														<SimplePredicate field="double(Network_Gb)" operator="lessOrEqual" value="11.25"/>
													</Node>
												</Node>
												<Node score="0.2304">
													<SimplePredicate field="double(Network_Gb)" operator="lessOrEqual" value="11.25"/>
												</Node>
											</Node>
										</Node>
									</Node>
								</Node>
							</Node>
							<Node score="1.728">
								<SimplePredicate field="double(Network_Gb)" operator="lessOrEqual" value="17.5"/>
								<Node score="1.0948">
									<SimplePredicate field="double(vCPUs_Num)" operator="lessOrEqual" value="24.0"/>
									<Node score="0.9492">
										<SimplePredicate field="double(GPUs_Num)" operator="lessOrEqual" value="0.5"/>
										<Node score="0.5443">
											<SimplePredicate field="double(vCPUs_Num)" operator="lessOrEqual" value="12.0"/>
											<Node score="0.4746">
												<SimplePredicate field="double(Memory_GiB)" operator="lessOrEqual" value="48.0"/>
												<Node score="0.3616">
													<SimplePredicate field="double(Network_Gb)" operator="lessOrEqual" value="11.25"/>
													<Node score="0.3072">
														<SimplePredicate field="double(Memory_GiB)" operator="lessOrEqual" value="24.0"/>
														<Node score="0.344">
															<SimplePredicate field="double(Storage_GB)" operator="lessOrEqual" value="387.0"/>
														</Node>
													</Node>
													<Node score="0.412">
														<SimplePredicate field="double(Storage_GB)" operator="lessOrEqual" value="387.0"/>
													</Node>
												</Node>
												<Node score="0.4032">
													<SimplePredicate field="double(Memory_GiB)" operator="lessOrEqual" value="24.0"/>
												</Node>
											</Node>
											<Node score="0.576">
												<SimplePredicate field="double(Storage_GB)" operator="lessOrEqual" value="387.0"/>
											</Node>
										</Node>
										<Node score="0.7232">
											<SimplePredicate field="double(Network_Gb)" operator="lessOrEqual" value="11.25"/>
											<Node score="0.768">
												<SimplePredicate field="double(Storage_GB)" operator="lessOrEqual" value="500.0"/>
											</Node>
											<Node score="0.688">
												<SimplePredicate field="double(Memory_GiB)" operator="lessOrEqual" value="48.0"/>
											</Node>
										</Node>
										<Node score="0.7258">
											<SimplePredicate field="double(Memory_GiB)" operator="lessOrEqual" value="48.0"/>
										</Node>
									</Node>
									<Node score="0.8047999999999998">
										<SimplePredicate field="double(vCPUs_Num)" operator="lessOrEqual" value="6.0"/>
									</Node>
								</Node>
								<Node score="1.376">
									<SimplePredicate field="double(Network_Gb)" operator="lessOrEqual" value="11.0"/>
								</Node>
								<Node score="1.6128">
									<SimplePredicate field="double(Memory_GiB)" operator="lessOrEqual" value="68.0"/>
								</Node>
							</Node>
							<Node score="2.2421">
								<SimplePredicate field="double(Network_Gb)" operator="lessOrEqual" value="22.5"/>
							</Node>
							<Node score="1.088">
								<SimplePredicate field="double(GPUs_Num)" operator="lessOrEqual" value="0.5"/>
							</Node>
						</Node>
						<Node score="5.6952">
							<SimplePredicate field="double(Memory_GiB)" operator="lessOrEqual" value="448.0"/>
							<Node score="3.468">
								<SimplePredicate field="double(Storage_GB)" operator="lessOrEqual" value="3225.0"/>
								<Node score="2.2312000000000003">
									<SimplePredicate field="double(Memory_GiB)" operator="lessOrEqual" value="136.0"/>
									<Node score="1.7086">
										<SimplePredicate field="double(Network_Gb)" operator="lessOrEqual" value="17.5"/>
										<Node score="1.2096">
											<SimplePredicate field="double(vCPUs_Num)" operator="lessOrEqual" value="24.0"/>
										</Node>
										<Node score="1.4464">
											<SimplePredicate field="double(Network_Gb)" operator="lessOrEqual" value="12.25"/>
											<Node score="1.648">
												<SimplePredicate field="double(Network_Gb)" operator="lessOrEqual" value="11.0"/>
											</Node>
										</Node>
										<Node score="1.8984">
											<SimplePredicate field="double(Network_Gb)" operator="lessOrEqual" value="13.75"/>
										</Node>
									</Node>
									<Node score="3.0042">
										<SimplePredicate field="double(Network_Gb)" operator="lessOrEqual" value="21.25"/>
										<Node score="2.752">
											<SimplePredicate field="double(GPUs_Num)" operator="lessOrEqual" value="0.5"/>
										</Node>
									</Node>
									<Node score="1.5392">
										<SimplePredicate field="double(vCPUs_Num)" operator="lessOrEqual" value="24.0"/>
									</Node>
									<Node score="2.1773">
										<SimplePredicate field="double(Memory_GiB)" operator="lessOrEqual" value="112.0"/>
									</Node>
								</Node>
								<Node score="1.6672">
									<SimplePredicate field="double(vCPUs_Num)" operator="lessOrEqual" value="20.0"/>
								</Node>
								<Node score="2.7648">
									<SimplePredicate field="double(Network_Gb)" operator="lessOrEqual" value="23.75"/>
									<Node score="2.5628">
										<SimplePredicate field="double(Memory_GiB)" operator="lessOrEqual" value="320.0"/>
										<Node score="2.472">
											<SimplePredicate field="double(Network_Gb)" operator="lessOrEqual" value="14.375"/>
											<Node score="2.304">
												<SimplePredicate field="double(Storage_GB)" operator="lessOrEqual" value="1500.0"/>
											</Node>
										</Node>
										<Node score="2.8476">
											<SimplePredicate field="double(Network_Gb)" operator="lessOrEqual" value="20.625"/>
										</Node>
									</Node>
									<Node score="3.6288">
										<SimplePredicate field="double(Network_Gb)" operator="lessOrEqual" value="19.375"/>
										<Node score="3.144">
											<SimplePredicate field="double(Network_Gb)" operator="lessOrEqual" value="14.375"/>
										</Node>
									</Node>
								</Node>
								<Node score="3.4875">
									<SimplePredicate field="double(vCPUs_Num)" operator="lessOrEqual" value="48.0"/>
								</Node>
								<Node score="3.456">
									<SimplePredicate field="double(GPUs_Num)" operator="lessOrEqual" value="2.0"/>
								</Node>
							</Node>
							<Node score="2.903">
								<SimplePredicate field="double(Memory_GiB)" operator="lessOrEqual" value="160.0"/>
								<Node score="2.4576">
									<SimplePredicate field="double(Network_Gb)" operator="lessOrEqual" value="27.5"/>
								</Node>
							</Node>
							<Node score="3.4171">
								<SimplePredicate field="double(Network_Gb)" operator="lessOrEqual" value="33.75"/>
								<Node score="5.424">
									<SimplePredicate field="double(Storage_GB)" operator="lessOrEqual" value="3700.0"/>
									<Node score="4.608">
										<SimplePredicate field="double(Memory_GiB)" operator="lessOrEqual" value="288.0"/>
									</Node>
								</Node>
								<Node score="3.3447999999999998">
									<SimplePredicate field="double(Network_Gb)" operator="lessOrEqual" value="27.5"/>
								</Node>
							</Node>
							<Node score="4.6016">
								<SimplePredicate field="double(Storage_GB)" operator="lessOrEqual" value="3780.0"/>
							</Node>
							<Node score="4.8384">
								<SimplePredicate field="double(Memory_GiB)" operator="lessOrEqual" value="288.0"/>
								<Node score="5.672">
									<SimplePredicate field="double(vCPUs_Num)" operator="lessOrEqual" value="72.0"/>
								</Node>
							</Node>
						</Node>
						<Node score="4.3546">
							<SimplePredicate field="double(vCPUs_Num)" operator="lessOrEqual" value="80.0"/>
							<Node score="7.5772">
								<SimplePredicate field="double(Storage_GB)" operator="lessOrEqual" value="2150.0"/>
							</Node>
							<Node score="4.8384">
								<SimplePredicate field="double(Network_Gb)" operator="lessOrEqual" value="27.5"/>
								<Node score="4.608">
									<SimplePredicate field="double(Network_Gb)" operator="lessOrEqual" value="22.5"/>
								</Node>
							</Node>
						</Node>
						<Node score="6.288">
							<SimplePredicate field="double(Network_Gb)" operator="lessOrEqual" value="22.5"/>
						</Node>
					</Node>
				</TreeModel>
			</Segment>
			<Segment id="4">
				<True/>
				<TreeModel functionName="regression" missingValueStrategy="nullPrediction" noTrueChildStrategy="returnLastPrediction">
					<MiningSchema>
						<MiningField name="double(vCPUs_Num)"/>
						<MiningField name="double(Storage_GB)"/>
						<MiningField name="double(Memory_GiB)"/>
						<MiningField name="double(Network_Gb)"/>
						<MiningField name="double(GPUs_Num)"/>
					</MiningSchema>
					<Node score="6.912">
						<True/>
						<Node score="3.3345">
							<SimplePredicate field="double(vCPUs_Num)" operator="lessOrEqual" value="40.0"/>
							<Node score="1.4736">
								<SimplePredicate field="double(Memory_GiB)" operator="lessOrEqual" value="96.0"/>
								<Node score="1.006">
									<SimplePredicate field="double(vCPUs_Num)" operator="lessOrEqual" value="6.0"/>
									<Node score="0.334">
										<SimplePredicate field="double(Storage_GB)" operator="lessOrEqual" value="243.5"/>
										<Node score="0.1954">
											<SimplePredicate field="double(Storage_GB)" operator="lessOrEqual" value="134.0"/>
											<Node score="0.11076666666666668">
												<SimplePredicate field="double(Memory_GiB)" operator="lessOrEqual" value="12.0"/>
												<Node score="0.068">
													<SimplePredicate field="double(vCPUs_Num)" operator="lessOrEqual" value="1.5"/>
													<Node score="0.0534">
														<SimplePredicate field="double(Memory_GiB)" operator="lessOrEqual" value="6.0"/>
														<Node score="0.0452">
															<SimplePredicate field="double(Network_Gb)" operator="lessOrEqual" value="11.25"/>
															<Node score="0.0384">
																<SimplePredicate field="double(Memory_GiB)" operator="lessOrEqual" value="3.0"/>
															</Node>
														</Node>
													</Node>
												</Node>
												<Node score="0.0768">
													<SimplePredicate field="double(Network_Gb)" operator="lessOrEqual" value="11.25"/>
													<Node score="0.103">
														<SimplePredicate field="double(Storage_GB)" operator="lessOrEqual" value="96.5"/>
														<Node score="0.086">
															<SimplePredicate field="double(Memory_GiB)" operator="lessOrEqual" value="6.0"/>
															<Node score="0.096">
																<SimplePredicate field="double(Storage_GB)" operator="lessOrEqual" value="62.5"/>
															</Node>
														</Node>
													</Node>
												</Node>
												<Node score="0.1008">
													<SimplePredicate field="double(Memory_GiB)" operator="lessOrEqual" value="6.0"/>
												</Node>
											</Node>
											<Node score="0.167">
												<SimplePredicate field="double(Network_Gb)" operator="lessOrEqual" value="18.75"/>
												<Node score="0.1361">
													<SimplePredicate field="double(Memory_GiB)" operator="lessOrEqual" value="24.0"/>
													<Node score="0.144">
														<SimplePredicate field="double(Storage_GB)" operator="lessOrEqual" value="96.5"/>
													</Node>
												</Node>
											</Node>
											<Node score="0.167">
												<SimplePredicate field="double(Storage_GB)" operator="lessOrEqual" value="96.5"/>
											</Node>
										</Node>
										<Node score="0.3182">
											<SimplePredicate field="double(Memory_GiB)" operator="lessOrEqual" value="24.0"/>
											<Node score="0.2016">
												<SimplePredicate field="double(Network_Gb)" operator="lessOrEqual" value="18.75"/>
												<Node score="0.1808">
													<SimplePredicate field="double(Network_Gb)" operator="lessOrEqual" value="11.25"/>
													<Node score="0.172">
														<SimplePredicate field="double(Storage_GB)" operator="lessOrEqual" value="193.5"/>
													</Node>
												</Node>
											</Node>
											<Node score="0.272">
												<SimplePredicate field="double(Network_Gb)" operator="lessOrEqual" value="27.5"/>
											</Node>
										</Node>
										<Node score="0.2304">
											<SimplePredicate field="double(Memory_GiB)" operator="lessOrEqual" value="48.0"/>
											<Node score="0.2793333333333333">
												<SimplePredicate field="double(Storage_GB)" operator="lessOrEqual" value="193.5"/>
											</Node>
										</Node>
									</Node>
								</Node>
								<Node score="1.4515">
									<SimplePredicate field="double(GPUs_Num)" operator="lessOrEqual" value="0.5"/>
									<Node score="1.088">
										<SimplePredicate field="double(vCPUs_Num)" operator="lessOrEqual" value="24.0"/>
										<Node score="0.6365">
											<SimplePredicate field="double(vCPUs_Num)" operator="lessOrEqual" value="12.0"/>
											<Node score="0.3629">
												<SimplePredicate field="double(Memory_GiB)" operator="lessOrEqual" value="24.0"/>
												<Node score="0.3072">
													<SimplePredicate field="double(Network_Gb)" operator="lessOrEqual" value="11.25"/>
												</Node>
												<Node score="0.4032">
													<SimplePredicate field="double(Network_Gb)" operator="lessOrEqual" value="13.75"/>
												</Node>
											</Node>
											<Node score="0.55">
												<SimplePredicate field="double(Network_Gb)" operator="lessOrEqual" value="11.25"/>
												<Node score="0.3616">
													<SimplePredicate field="double(Memory_GiB)" operator="lessOrEqual" value="48.0"/>
													<Node score="0.412">
														<SimplePredicate field="double(Storage_GB)" operator="lessOrEqual" value="387.0"/>
													</Node>
												</Node>
											</Node>
											<Node score="0.6048">
												<SimplePredicate field="double(Network_Gb)" operator="lessOrEqual" value="26.25"/>
											</Node>
										</Node>
										<Node score="0.7258">
											<SimplePredicate field="double(Network_Gb)" operator="lessOrEqual" value="20.0"/>
											<Node score="0.9492">
												<SimplePredicate field="double(Network_Gb)" operator="lessOrEqual" value="13.75"/>
												<Node score="0.7232">
													<SimplePredicate field="double(Network_Gb)" operator="lessOrEqual" value="11.25"/>
													<Node score="0.824">
														<SimplePredicate field="double(Storage_GB)" operator="lessOrEqual" value="775.0"/>
														<Node score="0.768">
															<SimplePredicate field="double(Memory_GiB)" operator="lessOrEqual" value="48.0"/>
														</Node>
													</Node>
												</Node>
												<Node score="0.8064">
													<SimplePredicate field="double(Memory_GiB)" operator="lessOrEqual" value="48.0"/>
												</Node>
											</Node>
										</Node>
									</Node>
									<Node score="1.2288">
										<SimplePredicate field="double(Network_Gb)" operator="lessOrEqual" value="13.5"/>
										<Node score="1.376">
											<SimplePredicate field="double(Network_Gb)" operator="lessOrEqual" value="11.0"/>
										</Node>
									</Node>
								</Node>
								<Node score="0.867">
									<SimplePredicate field="double(Network_Gb)" operator="lessOrEqual" value="15.0"/>
									<Node score="1.0948">
										<SimplePredicate field="double(vCPUs_Num)" operator="lessOrEqual" value="12.0"/>
									</Node>
								</Node>
								<Node score="2.2421">
									<SimplePredicate field="double(Network_Gb)" operator="lessOrEqual" value="22.5"/>
								</Node>
								<Node score="1.204">
									<SimplePredicate field="double(Storage_GB)" operator="lessOrEqual" value="412.5"/>
								</Node>
							</Node>
							<Node score="2.2312000000000003">
								<SimplePredicate field="double(Memory_GiB)" operator="lessOrEqual" value="192.0"/>
								<Node score="1.5392">
									<SimplePredicate field="double(vCPUs_Num)" operator="lessOrEqual" value="24.0"/>
									<Node score="0.8336">
										<SimplePredicate field="double(vCPUs_Num)" operator="lessOrEqual" value="10.0"/>
									</Node>
									<Node score="1.0886">
										<SimplePredicate field="double(Network_Gb)" operator="lessOrEqual" value="20.0"/>
										<Node score="1.2096">
											<SimplePredicate field="double(Network_Gb)" operator="lessOrEqual" value="13.75"/>
										</Node>
									</Node>
									<Node score="1.336">
										<SimplePredicate field="double(GPUs_Num)" operator="lessOrEqual" value="0.5"/>
									</Node>
								</Node>
								<Node score="1.734">
									<SimplePredicate field="double(Network_Gb)" operator="lessOrEqual" value="20.0"/>
									<Node score="1.4464">
										<SimplePredicate field="double(Network_Gb)" operator="lessOrEqual" value="12.25"/>
										<Node score="1.808">
											<SimplePredicate field="double(Storage_GB)" operator="lessOrEqual" value="1550.0"/>
										</Node>
									</Node>
									<Node score="1.8984">
										<SimplePredicate field="double(GPUs_Num)" operator="lessOrEqual" value="1.0"/>
									</Node>
								</Node>
							</Node>
							<Node score="2.672">
								<SimplePredicate field="double(Memory_GiB)" operator="lessOrEqual" value="384.0"/>
								<Node score="1.6672">
									<SimplePredicate field="double(vCPUs_Num)" operator="lessOrEqual" value="20.0"/>
								</Node>
								<Node score="2.1773">
									<SimplePredicate field="double(Network_Gb)" operator="lessOrEqual" value="20.0"/>
									<Node score="2.304">
										<SimplePredicate field="double(Storage_GB)" operator="lessOrEqual" value="1550.0"/>
									</Node>
								</Node>
								<Node score="2.4464">
									<SimplePredicate field="double(Storage_GB)" operator="lessOrEqual" value="1050.0"/>
								</Node>
							</Node>
						</Node>
						<Node score="4.3546">
							<SimplePredicate field="double(vCPUs_Num)" operator="lessOrEqual" value="84.0"/>
							<Node score="3.6864">
								<SimplePredicate field="double(Network_Gb)" operator="lessOrEqual" value="27.5"/>
								<Node score="2.8928">
									<SimplePredicate field="double(Memory_GiB)" operator="lessOrEqual" value="448.0"/>
									<Node score="2.7648">
										<SimplePredicate field="double(Network_Gb)" operator="lessOrEqual" value="22.5"/>
										<Node score="1.8432">
											<SimplePredicate field="double(Memory_GiB)" operator="lessOrEqual" value="112.0"/>
										</Node>
										<Node score="2.472">
											<SimplePredicate field="double(Network_Gb)" operator="lessOrEqual" value="14.375"/>
										</Node>
										<Node score="3.6288">
											<SimplePredicate field="double(Network_Gb)" operator="lessOrEqual" value="19.375"/>
											<Node score="2.8476">
												<SimplePredicate field="double(Memory_GiB)" operator="lessOrEqual" value="288.0"/>
											</Node>
										</Node>
										<Node score="2.7520000000000002">
											<SimplePredicate field="double(Storage_GB)" operator="lessOrEqual" value="2625.0"/>
										</Node>
									</Node>
									<Node score="3.468">
										<SimplePredicate field="double(Storage_GB)" operator="lessOrEqual" value="3100.0"/>
										<Node score="3.456">
											<SimplePredicate field="double(GPUs_Num)" operator="lessOrEqual" value="2.5"/>
											<Node score="3.3968">
												<SimplePredicate field="double(vCPUs_Num)" operator="lessOrEqual" value="68.0"/>
											</Node>
										</Node>
									</Node>
								</Node>
								<Node score="4.608">
									<SimplePredicate field="double(Network_Gb)" operator="lessOrEqual" value="22.5"/>
								</Node>
							</Node>
							<Node score="5.672">
								<SimplePredicate field="double(vCPUs_Num)" operator="lessOrEqual" value="56.0"/>
								<Node score="4.6016">
									<SimplePredicate field="double(Storage_GB)" operator="lessOrEqual" value="3780.0"/>
								</Node>
							</Node>
							<Node score="3.4171">
								<SimplePredicate field="double(Memory_GiB)" operator="lessOrEqual" value="384.0"/>
								<Node score="2.903">
									<SimplePredicate field="double(Memory_GiB)" operator="lessOrEqual" value="192.0"/>
								</Node>
							</Node>
						</Node>
						<Node score="5.6952">
							<SimplePredicate field="double(Memory_GiB)" operator="lessOrEqual" value="576.0"/>
							<Node score="4.128">
								<SimplePredicate field="double(Memory_GiB)" operator="lessOrEqual" value="288.0"/>
								<Node score="4.608">
									<SimplePredicate field="double(Storage_GB)" operator="lessOrEqual" value="3700.0"/>
								</Node>
							</Node>
							<Node score="5.424">
								<SimplePredicate field="double(Network_Gb)" operator="lessOrEqual" value="31.25"/>
							</Node>
						</Node>
						<Node score="6.288">
							<SimplePredicate field="double(Network_Gb)" operator="lessOrEqual" value="22.5"/>
						</Node>
					</Node>
				</TreeModel>
			</Segment>
			<Segment id="5">
				<True/>
				<TreeModel functionName="regression" missingValueStrategy="nullPrediction" noTrueChildStrategy="returnLastPrediction">
					<MiningSchema>
						<MiningField name="double(vCPUs_Num)"/>
						<MiningField name="double(Storage_GB)"/>
						<MiningField name="double(Memory_GiB)"/>
						<MiningField name="double(Network_Gb)"/>
						<MiningField name="double(GPUs_Num)"/>
					</MiningSchema>
					<Node score="5.6952">
						<True/>
						<Node score="2.304">
							<SimplePredicate field="double(vCPUs_Num)" operator="lessOrEqual" value="40.0"/>
							<Node score="1.5488">
								<SimplePredicate field="double(vCPUs_Num)" operator="lessOrEqual" value="24.0"/>
								<Node score="1.212">
									<SimplePredicate field="double(vCPUs_Num)" operator="lessOrEqual" value="12.0"/>
									<Node score="0.752">
										<SimplePredicate field="double(Storage_GB)" operator="lessOrEqual" value="243.5"/>
										<Node score="0.3908">
											<SimplePredicate field="double(GPUs_Num)" operator="lessOrEqual" value="0.5"/>
											<Node score="0.1954">
												<SimplePredicate field="double(Storage_GB)" operator="lessOrEqual" value="134.0"/>
												<Node score="0.1068">
													<SimplePredicate field="double(Memory_GiB)" operator="lessOrEqual" value="12.0"/>
													<Node score="0.068">
														<SimplePredicate field="double(Storage_GB)" operator="lessOrEqual" value="67.0"/>
														<Node score="0.0384">
															<SimplePredicate field="double(Memory_GiB)" operator="lessOrEqual" value="5.0"/>
														</Node>
														<Node score="0.0576">
															<SimplePredicate field="double(Network_Gb)" operator="lessOrEqual" value="11.25"/>
														</Node>
													</Node>
													<Node score="0.09575">
														<SimplePredicate field="double(Memory_GiB)" operator="lessOrEqual" value="6.0"/>
														<Node score="0.086">
															<SimplePredicate field="double(Storage_GB)" operator="lessOrEqual" value="96.5"/>
														</Node>
													</Node>
													<Node score="0.103">
														<SimplePredicate field="double(Storage_GB)" operator="lessOrEqual" value="96.5"/>
													</Node>
												</Node>
												<Node score="0.0835">
													<SimplePredicate field="double(vCPUs_Num)" operator="lessOrEqual" value="1.5"/>
												</Node>
												<Node score="0.167">
													<SimplePredicate field="double(Network_Gb)" operator="lessOrEqual" value="18.75"/>
													<Node score="0.1512">
														<SimplePredicate field="double(Memory_GiB)" operator="lessOrEqual" value="24.0"/>
													</Node>
												</Node>
												<Node score="0.167">
													<SimplePredicate field="double(Storage_GB)" operator="lessOrEqual" value="96.5"/>
												</Node>
											</Node>
											<Node score="0.3182">
												<SimplePredicate field="double(Memory_GiB)" operator="lessOrEqual" value="24.0"/>
												<Node score="0.22782">
													<SimplePredicate field="double(Network_Gb)" operator="lessOrEqual" value="18.75"/>
													<Node score="0.1808">
														<SimplePredicate field="double(Network_Gb)" operator="lessOrEqual" value="11.25"/>
														<Node score="0.1536">
															<SimplePredicate field="double(Memory_GiB)" operator="lessOrEqual" value="12.0"/>
															<Node score="0.172">
																<SimplePredicate field="double(Storage_GB)" operator="lessOrEqual" value="193.5"/>
															</Node>
														</Node>
													</Node>
													<Node score="0.2016">
														<SimplePredicate field="double(Memory_GiB)" operator="lessOrEqual" value="12.0"/>
													</Node>
												</Node>
												<Node score="0.272">
													<SimplePredicate field="double(Storage_GB)" operator="lessOrEqual" value="193.5"/>
												</Node>
											</Node>
											<Node score="0.334">
												<SimplePredicate field="double(Network_Gb)" operator="lessOrEqual" value="20.0"/>
												<Node score="0.288">
													<SimplePredicate field="double(Storage_GB)" operator="lessOrEqual" value="193.5"/>
												</Node>
											</Node>
										</Node>
									</Node>
									<Node score="0.5443">
										<SimplePredicate field="double(GPUs_Num)" operator="lessOrEqual" value="0.5"/>
										<Node score="0.3629">
											<SimplePredicate field="double(Memory_GiB)" operator="lessOrEqual" value="24.0"/>
											<Node score="0.3072">
												<SimplePredicate field="double(Network_Gb)" operator="lessOrEqual" value="12.5"/>
											</Node>
										</Node>
										<Node score="0.544">
											<SimplePredicate field="double(Storage_GB)" operator="lessOrEqual" value="387.0"/>
											<Node score="0.524">
												<SimplePredicate field="double(Network_Gb)" operator="lessOrEqual" value="17.5"/>
												<Node score="0.412">
													<SimplePredicate field="double(Memory_GiB)" operator="lessOrEqual" value="48.0"/>
												</Node>
											</Node>
										</Node>
										<Node score="0.6365">
											<SimplePredicate field="double(Memory_GiB)" operator="lessOrEqual" value="48.0"/>
										</Node>
										<Node score="0.6048">
											<SimplePredicate field="double(Network_Gb)" operator="lessOrEqual" value="13.75"/>
										</Node>
									</Node>
									<Node score="0.5412">
										<SimplePredicate field="double(Storage_GB)" operator="lessOrEqual" value="375.0"/>
										<Node score="1.006">
											<SimplePredicate field="double(Memory_GiB)" operator="lessOrEqual" value="24.0"/>
										</Node>
									</Node>
								</Node>
								<Node score="1.2096">
									<SimplePredicate field="double(Network_Gb)" operator="lessOrEqual" value="20.0"/>
									<Node score="0.9492">
										<SimplePredicate field="double(Memory_GiB)" operator="lessOrEqual" value="96.0"/>
										<Node score="0.7258">
											<SimplePredicate field="double(Memory_GiB)" operator="lessOrEqual" value="48.0"/>
											<Node score="0.688">
												<SimplePredicate field="double(Storage_GB)" operator="lessOrEqual" value="775.0"/>
												<Node score="0.768">
													<SimplePredicate field="double(Storage_GB)" operator="lessOrEqual" value="500.0"/>
												</Node>
											</Node>
											<Node score="0.8064">
												<SimplePredicate field="double(Network_Gb)" operator="lessOrEqual" value="13.75"/>
											</Node>
										</Node>
										<Node score="0.7232">
											<SimplePredicate field="double(Network_Gb)" operator="lessOrEqual" value="11.25"/>
											<Node score="0.867">
												<SimplePredicate field="double(Storage_GB)" operator="lessOrEqual" value="775.0"/>
												<Node score="0.824">
													<SimplePredicate field="double(GPUs_Num)" operator="lessOrEqual" value="0.5"/>
												</Node>
											</Node>
										</Node>
									</Node>
									<Node score="0.9216">
										<SimplePredicate field="double(Network_Gb)" operator="lessOrEqual" value="11.25"/>
										<Node score="1.1">
											<SimplePredicate field="double(Storage_GB)" operator="lessOrEqual" value="775.0"/>
										</Node>
									</Node>
								</Node>
								<Node score="1.088">
									<SimplePredicate field="double(GPUs_Num)" operator="lessOrEqual" value="0.5"/>
								</Node>
								<Node score="1.204">
									<SimplePredicate field="double(Storage_GB)" operator="lessOrEqual" value="412.5"/>
								</Node>
							</Node>
							<Node score="2.0144">
								<SimplePredicate field="double(Memory_GiB)" operator="lessOrEqual" value="192.0"/>
								<Node score="1.4515">
									<SimplePredicate field="double(Memory_GiB)" operator="lessOrEqual" value="96.0"/>
									<Node score="1.376">
										<SimplePredicate field="double(Storage_GB)" operator="lessOrEqual" value="1550.0"/>
									</Node>
									<Node score="1.6128">
										<SimplePredicate field="double(Network_Gb)" operator="lessOrEqual" value="13.75"/>
									</Node>
								</Node>
								<Node score="1.734">
									<SimplePredicate field="double(Network_Gb)" operator="lessOrEqual" value="20.0"/>
									<Node score="1.8984">
										<SimplePredicate field="double(Network_Gb)" operator="lessOrEqual" value="13.75"/>
										<Node score="1.728">
											<SimplePredicate field="double(Network_Gb)" operator="lessOrEqual" value="11.25"/>
										</Node>
									</Node>
									<Node score="1.7086">
										<SimplePredicate field="double(GPUs_Num)" operator="lessOrEqual" value="1.0"/>
									</Node>
								</Node>
							</Node>
							<Node score="3.1404666666666667">
								<SimplePredicate field="double(Storage_GB)" operator="lessOrEqual" value="1050.0"/>
							</Node>
						</Node>
						<Node score="4.3546">
							<SimplePredicate field="double(vCPUs_Num)" operator="lessOrEqual" value="84.0"/>
							<Node score="5.672">
								<SimplePredicate field="double(Memory_GiB)" operator="lessOrEqual" value="448.0"/>
								<Node score="3.4171">
									<SimplePredicate field="double(Network_Gb)" operator="lessOrEqual" value="35.0"/>
									<Node score="3.456">
										<SimplePredicate field="double(Memory_GiB)" operator="lessOrEqual" value="224.0"/>
										<Node score="2.903">
											<SimplePredicate field="double(vCPUs_Num)" operator="lessOrEqual" value="68.0"/>
											<Node score="2.472">
												<SimplePredicate field="double(Network_Gb)" operator="lessOrEqual" value="11.0"/>
											</Node>
											<Node score="2.4576">
												<SimplePredicate field="double(Network_Gb)" operator="lessOrEqual" value="27.5"/>
												<Node score="2.752">
													<SimplePredicate field="double(Storage_GB)" operator="lessOrEqual" value="3100.0"/>
													<Node score="2.712">
														<SimplePredicate field="double(Network_Gb)" operator="lessOrEqual" value="16.0"/>
													</Node>
												</Node>
											</Node>
										</Node>
									</Node>
									<Node score="2.7648">
										<SimplePredicate field="double(Storage_GB)" operator="lessOrEqual" value="3325.0"/>
										<Node score="3.144">
											<SimplePredicate field="double(Network_Gb)" operator="lessOrEqual" value="14.375"/>
										</Node>
										<Node score="3.6288">
											<SimplePredicate field="double(Network_Gb)" operator="lessOrEqual" value="19.375"/>
										</Node>
										<Node score="3.468">
											<SimplePredicate field="double(Storage_GB)" operator="lessOrEqual" value="2625.0"/>
											<Node score="3.3968">
												<SimplePredicate field="double(Storage_GB)" operator="lessOrEqual" value="2140.0"/>
											</Node>
										</Node>
									</Node>
									<Node score="2.8928">
										<SimplePredicate field="double(Network_Gb)" operator="lessOrEqual" value="27.5"/>
									</Node>
								</Node>
							</Node>
							<Node score="4.608">
								<SimplePredicate field="double(Storage_GB)" operator="lessOrEqual" value="2625.0"/>
							</Node>
							<Node score="4.008">
								<SimplePredicate field="double(Network_Gb)" operator="lessOrEqual" value="27.5"/>
								<Node score="3.6864">
									<SimplePredicate field="double(Memory_GiB)" operator="lessOrEqual" value="640.0"/>
								</Node>
							</Node>
						</Node>
						<Node score="4.8384">
							<SimplePredicate field="double(Memory_GiB)" operator="lessOrEqual" value="288.0"/>
							<Node score="4.128">
								<SimplePredicate field="double(Network_Gb)" operator="lessOrEqual" value="22.5"/>
							</Node>
							<Node score="4.608">
								<SimplePredicate field="double(Network_Gb)" operator="lessOrEqual" value="31.25"/>
							</Node>
						</Node>
						<Node score="5.424">
							<SimplePredicate field="double(Storage_GB)" operator="lessOrEqual" value="4650.0"/>
						</Node>
					</Node>
				</TreeModel>
			</Segment>
			<Segment id="6">
				<True/>
				<TreeModel functionName="regression" missingValueStrategy="nullPrediction" noTrueChildStrategy="returnLastPrediction">
					<MiningSchema>
						<MiningField name="double(vCPUs_Num)"/>
						<MiningField name="double(Storage_GB)"/>
						<MiningField name="double(Memory_GiB)"/>
						<MiningField name="double(Network_Gb)"/>
						<MiningField name="double(GPUs_Num)"/>
					</MiningSchema>
					<Node score="7.2576">
						<True/>
						<Node score="2.903">
							<SimplePredicate field="double(Memory_GiB)" operator="lessOrEqual" value="136.0"/>
							<Node score="1.4515">
								<SimplePredicate field="double(Memory_GiB)" operator="lessOrEqual" value="68.0"/>
								<Node score="0.9776">
									<SimplePredicate field="double(vCPUs_Num)" operator="lessOrEqual" value="12.0"/>
									<Node score="0.3908">
										<SimplePredicate field="double(Storage_GB)" operator="lessOrEqual" value="243.5"/>
										<Node score="0.167">
											<SimplePredicate field="double(Storage_GB)" operator="lessOrEqual" value="134.0"/>
											<Node score="0.068">
												<SimplePredicate field="double(vCPUs_Num)" operator="lessOrEqual" value="1.5"/>
												<Node score="0.0534">
													<SimplePredicate field="double(Memory_GiB)" operator="lessOrEqual" value="6.0"/>
													<Node score="0.0452">
														<SimplePredicate field="double(Network_Gb)" operator="lessOrEqual" value="11.25"/>
														<Node score="0.0384">
															<SimplePredicate field="double(Memory_GiB)" operator="lessOrEqual" value="3.0"/>
														</Node>
													</Node>
												</Node>
											</Node>
											<Node score="0.11473333333333334">
												<SimplePredicate field="double(Memory_GiB)" operator="lessOrEqual" value="12.0"/>
												<Node score="0.1008">
													<SimplePredicate field="double(Memory_GiB)" operator="lessOrEqual" value="6.0"/>
													<Node score="0.0768">
														<SimplePredicate field="double(Network_Gb)" operator="lessOrEqual" value="11.25"/>
														<Node score="0.096">
															<SimplePredicate field="double(Storage_GB)" operator="lessOrEqual" value="62.5"/>
														</Node>
														<Node score="0.086">
															<SimplePredicate field="double(Storage_GB)" operator="lessOrEqual" value="96.5"/>
														</Node>
													</Node>
												</Node>
												<Node score="0.103">
													<SimplePredicate field="double(Network_Gb)" operator="lessOrEqual" value="11.25"/>
												</Node>
											</Node>
											<Node score="0.167">
												<SimplePredicate field="double(Network_Gb)" operator="lessOrEqual" value="18.75"/>
												<Node score="0.1361">
													<SimplePredicate field="double(Memory_GiB)" operator="lessOrEqual" value="24.0"/>
												</Node>
											</Node>
										</Node>
										<Node score="0.3785">
											<SimplePredicate field="double(Network_Gb)" operator="lessOrEqual" value="27.5"/>
											<Node score="0.2304">
												<SimplePredicate field="double(GPUs_Num)" operator="lessOrEqual" value="0.5"/>
												<Node score="0.288">
													<SimplePredicate field="double(Storage_GB)" operator="lessOrEqual" value="193.5"/>
													<Node score="0.272">
														<SimplePredicate field="double(Memory_GiB)" operator="lessOrEqual" value="24.0"/>
													</Node>
												</Node>
												<Node score="0.1536">
													<SimplePredicate field="double(Memory_GiB)" operator="lessOrEqual" value="12.0"/>
												</Node>
												<Node score="0.2373">
													<SimplePredicate field="double(Memory_GiB)" operator="lessOrEqual" value="24.0"/>
													<Node score="0.1808">
														<SimplePredicate field="double(Network_Gb)" operator="lessOrEqual" value="11.25"/>
													</Node>
												</Node>
											</Node>
										</Node>
										<Node score="0.3182">
											<SimplePredicate field="double(Memory_GiB)" operator="lessOrEqual" value="24.0"/>
										</Node>
									</Node>
									<Node score="0.6365">
										<SimplePredicate field="double(GPUs_Num)" operator="lessOrEqual" value="0.5"/>
										<Node score="0.524">
											<SimplePredicate field="double(Network_Gb)" operator="lessOrEqual" value="13.75"/>
											<Node score="0.4746">
												<SimplePredicate field="double(Memory_GiB)" operator="lessOrEqual" value="48.0"/>
												<Node score="0.3616">
													<SimplePredicate field="double(Network_Gb)" operator="lessOrEqual" value="11.25"/>
													<Node score="0.412">
														<SimplePredicate field="double(Storage_GB)" operator="lessOrEqual" value="387.0"/>
													</Node>
												</Node>
												<Node score="0.4032">
													<SimplePredicate field="double(Memory_GiB)" operator="lessOrEqual" value="24.0"/>
												</Node>
											</Node>
										</Node>
										<Node score="0.5443">
											<SimplePredicate field="double(Network_Gb)" operator="lessOrEqual" value="32.5"/>
											<Node score="0.544">
												<SimplePredicate field="double(Memory_GiB)" operator="lessOrEqual" value="48.0"/>
											</Node>
										</Node>
									</Node>
									<Node score="0.9054">
										<SimplePredicate field="double(Storage_GB)" operator="lessOrEqual" value="350.0"/>
									</Node>
								</Node>
								<Node score="1.3232">
									<SimplePredicate field="double(Storage_GB)" operator="lessOrEqual" value="1075.0"/>
									<Node score="0.8543">
										<SimplePredicate field="double(Network_Gb)" operator="lessOrEqual" value="20.0"/>
										<Node score="0.7258">
											<SimplePredicate field="double(Memory_GiB)" operator="lessOrEqual" value="48.0"/>
											<Node score="0.768">
												<SimplePredicate field="double(Storage_GB)" operator="lessOrEqual" value="500.0"/>
											</Node>
											<Node score="0.688">
												<SimplePredicate field="double(Storage_GB)" operator="lessOrEqual" value="775.0"/>
											</Node>
										</Node>
										<Node score="0.867">
											<SimplePredicate field="double(Storage_GB)" operator="lessOrEqual" value="775.0"/>
											<Node score="0.824">
												<SimplePredicate field="double(GPUs_Num)" operator="lessOrEqual" value="0.5"/>
											</Node>
										</Node>
										<Node score="0.9492">
											<SimplePredicate field="double(Network_Gb)" operator="lessOrEqual" value="13.75"/>
										</Node>
									</Node>
									<Node score="1.204">
										<SimplePredicate field="double(Storage_GB)" operator="lessOrEqual" value="412.5"/>
									</Node>
								</Node>
								<Node score="1.2288">
									<SimplePredicate field="double(Network_Gb)" operator="lessOrEqual" value="13.5"/>
									<Node score="1.376">
										<SimplePredicate field="double(Storage_GB)" operator="lessOrEqual" value="1550.0"/>
									</Node>
								</Node>
							</Node>
							<Node score="1.8983999999999999">
								<SimplePredicate field="double(Network_Gb)" operator="lessOrEqual" value="16.875"/>
								<Node score="1.0886">
									<SimplePredicate field="double(vCPUs_Num)" operator="lessOrEqual" value="24.0"/>
									<Node score="1.152">
										<SimplePredicate field="double(Storage_GB)" operator="lessOrEqual" value="775.0"/>
									</Node>
									<Node score="0.9216">
										<SimplePredicate field="double(Network_Gb)" operator="lessOrEqual" value="12.5"/>
									</Node>
								</Node>
								<Node score="1.4464">
									<SimplePredicate field="double(Network_Gb)" operator="lessOrEqual" value="12.25"/>
									<Node score="1.728">
										<SimplePredicate field="double(Storage_GB)" operator="lessOrEqual" value="1550.0"/>
										<Node score="1.728">
											<SimplePredicate field="double(Memory_GiB)" operator="lessOrEqual" value="100.0"/>
										</Node>
									</Node>
								</Node>
								<Node score="1.734">
									<SimplePredicate field="double(Storage_GB)" operator="lessOrEqual" value="1550.0"/>
								</Node>
							</Node>
							<Node score="2.448">
								<SimplePredicate field="double(Network_Gb)" operator="lessOrEqual" value="27.5"/>
								<Node score="3.0042">
									<SimplePredicate field="double(Network_Gb)" operator="lessOrEqual" value="21.25"/>
									<Node score="2.4192">
										<SimplePredicate field="double(Memory_GiB)" operator="lessOrEqual" value="112.0"/>
									</Node>
								</Node>
								<Node score="1.5392">
									<SimplePredicate field="double(Storage_GB)" operator="lessOrEqual" value="750.0"/>
								</Node>
								<Node score="2.1773">
									<SimplePredicate field="double(Network_Gb)" operator="lessOrEqual" value="23.75"/>
								</Node>
								<Node score="2.4576">
									<SimplePredicate field="double(GPUs_Num)" operator="lessOrEqual" value="0.5"/>
								</Node>
							</Node>
						</Node>
						<Node score="6.912">
							<SimplePredicate field="double(Network_Gb)" operator="lessOrEqual" value="32.5"/>
							<Node score="3.468">
								<SimplePredicate field="double(Storage_GB)" operator="lessOrEqual" value="3225.0"/>
								<Node score="4.608">
									<SimplePredicate field="double(GPUs_Num)" operator="lessOrEqual" value="0.5"/>
									<Node score="4.008">
										<SimplePredicate field="double(vCPUs_Num)" operator="lessOrEqual" value="56.0"/>
										<Node score="2.7648">
											<SimplePredicate field="double(Memory_GiB)" operator="lessOrEqual" value="640.0"/>
											<Node score="2.5628">
												<SimplePredicate field="double(Memory_GiB)" operator="lessOrEqual" value="320.0"/>
												<Node score="2.472">
													<SimplePredicate field="double(Network_Gb)" operator="lessOrEqual" value="11.0"/>
												</Node>
												<Node score="2.712">
													<SimplePredicate field="double(Storage_GB)" operator="lessOrEqual" value="2325.0"/>
													<Node score="2.672">
														<SimplePredicate field="double(Storage_GB)" operator="lessOrEqual" value="1500.0"/>
													</Node>
												</Node>
											</Node>
											<Node score="3.456">
												<SimplePredicate field="double(Storage_GB)" operator="lessOrEqual" value="1850.0"/>
												<Node score="3.144">
													<SimplePredicate field="double(Network_Gb)" operator="lessOrEqual" value="11.0"/>
												</Node>
												<Node score="3.3345">
													<SimplePredicate field="double(Storage_GB)" operator="lessOrEqual" value="1137.5"/>
												</Node>
											</Node>
											<Node score="2.672">
												<SimplePredicate field="double(Network_Gb)" operator="lessOrEqual" value="16.0"/>
											</Node>
										</Node>
									</Node>
									<Node score="3.456">
										<SimplePredicate field="double(Memory_GiB)" operator="lessOrEqual" value="328.0"/>
									</Node>
								</Node>
								<Node score="4.5286">
									<SimplePredicate field="double(GPUs_Num)" operator="lessOrEqual" value="2.5"/>
								</Node>
							</Node>
							<Node score="4.3546">
								<SimplePredicate field="double(Memory_GiB)" operator="lessOrEqual" value="640.0"/>
								<Node score="5.424">
									<SimplePredicate field="double(Storage_GB)" operator="lessOrEqual" value="3700.0"/>
									<Node score="4.608">
										<SimplePredicate field="double(Memory_GiB)" operator="lessOrEqual" value="288.0"/>
									</Node>
								</Node>
								<Node score="3.9168">
									<SimplePredicate field="double(Network_Gb)" operator="lessOrEqual" value="27.5"/>
									<Node score="4.128">
										<SimplePredicate field="double(Memory_GiB)" operator="lessOrEqual" value="224.0"/>
									</Node>
									<Node score="3.7968">
										<SimplePredicate field="double(Memory_GiB)" operator="lessOrEqual" value="384.0"/>
									</Node>
								</Node>
							</Node>
							<Node score="6.288">
								<SimplePredicate field="double(Network_Gb)" operator="lessOrEqual" value="22.5"/>
							</Node>
						</Node>
						<Node score="7.5772">
							<SimplePredicate field="double(Memory_GiB)" operator="lessOrEqual" value="640.0"/>
						</Node>
					</Node>
				</TreeModel>
			</Segment>
			<Segment id="7">
				<True/>
				<TreeModel functionName="regression" missingValueStrategy="nullPrediction" noTrueChildStrategy="returnLastPrediction">
					<MiningSchema>
						<MiningField name="double(vCPUs_Num)"/>
						<MiningField name="double(Storage_GB)"/>
						<MiningField name="double(Memory_GiB)"/>
						<MiningField name="double(Network_Gb)"/>
						<MiningField name="double(GPUs_Num)"/>
					</MiningSchema>
					<Node score="7.2576">
						<True/>
						<Node score="2.903">
							<SimplePredicate field="double(Memory_GiB)" operator="lessOrEqual" value="160.0"/>
							<Node score="0.752">
								<SimplePredicate field="double(vCPUs_Num)" operator="lessOrEqual" value="12.0"/>
								<Node score="0.1954">
									<SimplePredicate field="double(Storage_GB)" operator="lessOrEqual" value="134.0"/>
									<Node score="0.0835">
										<SimplePredicate field="double(Storage_GB)" operator="lessOrEqual" value="67.0"/>
										<Node score="0.096">
											<SimplePredicate field="double(Storage_GB)" operator="lessOrEqual" value="54.5"/>
										</Node>
										<Node score="0.068">
											<SimplePredicate field="double(Memory_GiB)" operator="lessOrEqual" value="12.0"/>
											<Node score="0.0534">
												<SimplePredicate field="double(Memory_GiB)" operator="lessOrEqual" value="6.0"/>
												<Node score="0.0452">
													<SimplePredicate field="double(Network_Gb)" operator="lessOrEqual" value="11.25"/>
												</Node>
												<Node score="0.0454">
													<SimplePredicate field="double(Memory_GiB)" operator="lessOrEqual" value="3.0"/>
												</Node>
											</Node>
											<Node score="0.0576">
												<SimplePredicate field="double(Network_Gb)" operator="lessOrEqual" value="11.25"/>
											</Node>
										</Node>
									</Node>
									<Node score="0.086">
										<SimplePredicate field="double(Memory_GiB)" operator="lessOrEqual" value="10.0"/>
									</Node>
									<Node score="0.167">
										<SimplePredicate field="double(Network_Gb)" operator="lessOrEqual" value="18.75"/>
										<Node score="0.1361">
											<SimplePredicate field="double(Memory_GiB)" operator="lessOrEqual" value="24.0"/>
											<Node score="0.144">
												<SimplePredicate field="double(Storage_GB)" operator="lessOrEqual" value="96.5"/>
											</Node>
										</Node>
									</Node>
									<Node score="0.167">
										<SimplePredicate field="double(Storage_GB)" operator="lessOrEqual" value="96.5"/>
									</Node>
								</Node>
								<Node score="0.6365">
									<SimplePredicate field="double(GPUs_Num)" operator="lessOrEqual" value="0.5"/>
									<Node score="0.3072">
										<SimplePredicate field="double(Memory_GiB)" operator="lessOrEqual" value="24.0"/>
										<Node score="0.3182">
											<SimplePredicate field="double(vCPUs_Num)" operator="lessOrEqual" value="6.0"/>
											<Node score="0.2373">
												<SimplePredicate field="double(Network_Gb)" operator="lessOrEqual" value="21.25"/>
												<Node score="0.1808">
													<SimplePredicate field="double(Network_Gb)" operator="lessOrEqual" value="11.25"/>
													<Node score="0.206">
														<SimplePredicate field="double(Storage_GB)" operator="lessOrEqual" value="193.5"/>
													</Node>
												</Node>
												<Node score="0.2016">
													<SimplePredicate field="double(Memory_GiB)" operator="lessOrEqual" value="12.0"/>
												</Node>
											</Node>
										</Node>
										<Node score="0.344">
											<SimplePredicate field="double(Storage_GB)" operator="lessOrEqual" value="387.0"/>
										</Node>
									</Node>
									<Node score="0.3908">
										<SimplePredicate field="double(Storage_GB)" operator="lessOrEqual" value="268.5"/>
										<Node score="0.288">
											<SimplePredicate field="double(Storage_GB)" operator="lessOrEqual" value="193.5"/>
										</Node>
									</Node>
									<Node score="0.4608">
										<SimplePredicate field="double(Network_Gb)" operator="lessOrEqual" value="26.25"/>
										<Node score="0.524">
											<SimplePredicate field="double(Storage_GB)" operator="lessOrEqual" value="387.0"/>
										</Node>
										<Node score="0.4746">
											<SimplePredicate field="double(Memory_GiB)" operator="lessOrEqual" value="48.0"/>
											<Node score="0.3616">
												<SimplePredicate field="double(Network_Gb)" operator="lessOrEqual" value="11.25"/>
											</Node>
										</Node>
									</Node>
								</Node>
								<Node score="0.3785">
									<SimplePredicate field="double(Storage_GB)" operator="lessOrEqual" value="187.5"/>
								</Node>
								<Node score="0.9776">
									<SimplePredicate field="double(Network_Gb)" operator="lessOrEqual" value="17.5"/>
									<Node score="1.006">
										<SimplePredicate field="double(Memory_GiB)" operator="lessOrEqual" value="24.0"/>
									</Node>
								</Node>
							</Node>
							<Node score="1.7086">
								<SimplePredicate field="double(Network_Gb)" operator="lessOrEqual" value="16.875"/>
								<Node score="1.0886">
									<SimplePredicate field="double(Storage_GB)" operator="lessOrEqual" value="1075.0"/>
									<Node score="0.8543">
										<SimplePredicate field="double(Memory_GiB)" operator="lessOrEqual" value="96.0"/>
										<Node score="0.688">
											<SimplePredicate field="double(Memory_GiB)" operator="lessOrEqual" value="48.0"/>
										</Node>
										<Node score="0.867">
											<SimplePredicate field="double(Network_Gb)" operator="lessOrEqual" value="11.25"/>
											<Node score="0.7232">
												<SimplePredicate field="double(GPUs_Num)" operator="lessOrEqual" value="0.5"/>
											</Node>
										</Node>
										<Node score="0.9492">
											<SimplePredicate field="double(Network_Gb)" operator="lessOrEqual" value="13.75"/>
										</Node>
									</Node>
									<Node score="0.9216">
										<SimplePredicate field="double(Network_Gb)" operator="lessOrEqual" value="11.25"/>
										<Node score="1.152">
											<SimplePredicate field="double(Storage_GB)" operator="lessOrEqual" value="775.0"/>
										</Node>
									</Node>
									<Node score="1.2096">
										<SimplePredicate field="double(Network_Gb)" operator="lessOrEqual" value="13.75"/>
									</Node>
								</Node>
								<Node score="1.4515">
									<SimplePredicate field="double(Memory_GiB)" operator="lessOrEqual" value="80.0"/>
									<Node score="1.2288">
										<SimplePredicate field="double(Network_Gb)" operator="lessOrEqual" value="12.25"/>
										<Node score="1.376">
											<SimplePredicate field="double(Storage_GB)" operator="lessOrEqual" value="1550.0"/>
										</Node>
									</Node>
									<Node score="1.6128">
										<SimplePredicate field="double(Network_Gb)" operator="lessOrEqual" value="13.75"/>
									</Node>
								</Node>
								<Node score="2.064">
									<SimplePredicate field="double(Memory_GiB)" operator="lessOrEqual" value="112.0"/>
								</Node>
								<Node score="1.4464">
									<SimplePredicate field="double(Network_Gb)" operator="lessOrEqual" value="12.25"/>
									<Node score="1.648">
										<SimplePredicate field="double(Storage_GB)" operator="lessOrEqual" value="1550.0"/>
									</Node>
								</Node>
								<Node score="1.8984">
									<SimplePredicate field="double(Network_Gb)" operator="lessOrEqual" value="13.75"/>
								</Node>
								<Node score="1.734">
									<SimplePredicate field="double(Storage_GB)" operator="lessOrEqual" value="1550.0"/>
								</Node>
							</Node>
							<Node score="1.204">
								<SimplePredicate field="double(Storage_GB)" operator="lessOrEqual" value="412.5"/>
							</Node>
							<Node score="2.3396">
								<SimplePredicate field="double(Network_Gb)" operator="lessOrEqual" value="27.5"/>
								<Node score="2.1773">
									<SimplePredicate field="double(Memory_GiB)" operator="lessOrEqual" value="112.0"/>
									<Node score="2.4192">
										<SimplePredicate field="double(Network_Gb)" operator="lessOrEqual" value="19.375"/>
									</Node>
									<Node score="1.8432">
										<SimplePredicate field="double(Network_Gb)" operator="lessOrEqual" value="21.25"/>
									</Node>
								</Node>
								<Node score="3.0042">
									<SimplePredicate field="double(Network_Gb)" operator="lessOrEqual" value="22.5"/>
								</Node>
								<Node score="1.5392">
									<SimplePredicate field="double(Storage_GB)" operator="lessOrEqual" value="750.0"/>
								</Node>
								<Node score="2.4576">
									<SimplePredicate field="double(GPUs_Num)" operator="lessOrEqual" value="0.5"/>
								</Node>
							</Node>
						</Node>
						<Node score="7.5772">
							<SimplePredicate field="double(Memory_GiB)" operator="lessOrEqual" value="640.0"/>
							<Node score="4.128">
								<SimplePredicate field="double(Network_Gb)" operator="lessOrEqual" value="32.5"/>
								<Node score="1.6672">
									<SimplePredicate field="double(vCPUs_Num)" operator="lessOrEqual" value="12.0"/>
								</Node>
								<Node score="4.3546">
									<SimplePredicate field="double(vCPUs_Num)" operator="lessOrEqual" value="80.0"/>
									<Node score="3.3968">
										<SimplePredicate field="double(Memory_GiB)" operator="lessOrEqual" value="448.0"/>
										<Node score="3.144">
											<SimplePredicate field="double(Network_Gb)" operator="lessOrEqual" value="11.0"/>
											<Node score="2.304">
												<SimplePredicate field="double(Memory_GiB)" operator="lessOrEqual" value="320.0"/>
											</Node>
										</Node>
										<Node score="2.8476">
											<SimplePredicate field="double(Memory_GiB)" operator="lessOrEqual" value="224.0"/>
											<Node score="2.712">
												<SimplePredicate field="double(Network_Gb)" operator="lessOrEqual" value="15.375"/>
											</Node>
										</Node>
										<Node score="3.6288">
											<SimplePredicate field="double(Network_Gb)" operator="lessOrEqual" value="21.875"/>
											<Node score="3.456">
												<SimplePredicate field="double(Storage_GB)" operator="lessOrEqual" value="2325.0"/>
											</Node>
										</Node>
										<Node score="3.4171">
											<SimplePredicate field="double(GPUs_Num)" operator="lessOrEqual" value="0.5"/>
											<Node score="2.672">
												<SimplePredicate field="double(vCPUs_Num)" operator="lessOrEqual" value="48.0"/>
											</Node>
											<Node score="3.2543999999999995">
												<SimplePredicate field="double(Network_Gb)" operator="lessOrEqual" value="27.5"/>
											</Node>
										</Node>
										<Node score="3.4875">
											<SimplePredicate field="double(Storage_GB)" operator="lessOrEqual" value="1390.0"/>
										</Node>
									</Node>
									<Node score="3.3345">
										<SimplePredicate field="double(Storage_GB)" operator="lessOrEqual" value="2137.5"/>
									</Node>
									<Node score="3.9744">
										<SimplePredicate field="double(Network_Gb)" operator="lessOrEqual" value="27.5"/>
									</Node>
								</Node>
								<Node score="4.608">
									<SimplePredicate field="double(Storage_GB)" operator="lessOrEqual" value="3700.0"/>
								</Node>
							</Node>
							<Node score="5.6952">
								<SimplePredicate field="double(Memory_GiB)" operator="lessOrEqual" value="448.0"/>
								<Node score="4.8384">
									<SimplePredicate field="double(Memory_GiB)" operator="lessOrEqual" value="288.0"/>
									<Node score="5.672">
										<SimplePredicate field="double(Storage_GB)" operator="lessOrEqual" value="4750.0"/>
									</Node>
								</Node>
							</Node>
						</Node>
						<Node score="6.912000000000001">
							<SimplePredicate field="double(Network_Gb)" operator="lessOrEqual" value="31.25"/>
						</Node>
					</Node>
				</TreeModel>
			</Segment>
			<Segment id="8">
				<True/>
				<TreeModel functionName="regression" missingValueStrategy="nullPrediction" noTrueChildStrategy="returnLastPrediction">
					<MiningSchema>
						<MiningField name="double(vCPUs_Num)"/>
						<MiningField name="double(Storage_GB)"/>
						<MiningField name="double(Memory_GiB)"/>
						<MiningField name="double(Network_Gb)"/>
						<MiningField name="double(GPUs_Num)"/>
					</MiningSchema>
					<Node score="7.2576">
						<True/>
						<Node score="2.903">
							<SimplePredicate field="double(Memory_GiB)" operator="lessOrEqual" value="136.0"/>
							<Node score="1.212">
								<SimplePredicate field="double(Memory_GiB)" operator="lessOrEqual" value="48.0"/>
								<Node score="0.752">
									<SimplePredicate field="double(Storage_GB)" operator="lessOrEqual" value="243.5"/>
									<Node score="0.2722">
										<SimplePredicate field="double(GPUs_Num)" operator="lessOrEqual" value="0.5"/>
										<Node score="0.1954">
											<SimplePredicate field="double(vCPUs_Num)" operator="lessOrEqual" value="3.0"/>
											<Node score="0.14365">
												<SimplePredicate field="double(Network_Gb)" operator="lessOrEqual" value="18.75"/>
												<Node score="0.0835">
													<SimplePredicate field="double(vCPUs_Num)" operator="lessOrEqual" value="1.5"/>
													<Node score="0.0534">
														<SimplePredicate field="double(Memory_GiB)" operator="lessOrEqual" value="6.0"/>
														<Node score="0.0384">
															<SimplePredicate field="double(Network_Gb)" operator="lessOrEqual" value="11.25"/>
														</Node>
													</Node>
													<Node score="0.068">
														<SimplePredicate field="double(Memory_GiB)" operator="lessOrEqual" value="12.0"/>
													</Node>
												</Node>
												<Node score="0.09575">
													<SimplePredicate field="double(Memory_GiB)" operator="lessOrEqual" value="6.0"/>
													<Node score="0.0768">
														<SimplePredicate field="double(Network_Gb)" operator="lessOrEqual" value="11.25"/>
													</Node>
												</Node>
												<Node score="0.11473333333333334">
													<SimplePredicate field="double(Memory_GiB)" operator="lessOrEqual" value="12.0"/>
													<Node score="0.103">
														<SimplePredicate field="double(Network_Gb)" operator="lessOrEqual" value="11.25"/>
													</Node>
												</Node>
											</Node>
											<Node score="0.167">
												<SimplePredicate field="double(Storage_GB)" operator="lessOrEqual" value="96.5"/>
											</Node>
										</Node>
										<Node score="0.272">
											<SimplePredicate field="double(Memory_GiB)" operator="lessOrEqual" value="24.0"/>
											<Node score="0.2136">
												<SimplePredicate field="double(Network_Gb)" operator="lessOrEqual" value="18.75"/>
												<Node score="0.1808">
													<SimplePredicate field="double(Network_Gb)" operator="lessOrEqual" value="11.25"/>
													<Node score="0.1536">
														<SimplePredicate field="double(Memory_GiB)" operator="lessOrEqual" value="12.0"/>
														<Node score="0.172">
															<SimplePredicate field="double(Storage_GB)" operator="lessOrEqual" value="193.5"/>
														</Node>
													</Node>
												</Node>
												<Node score="0.2016">
													<SimplePredicate field="double(Memory_GiB)" operator="lessOrEqual" value="12.0"/>
												</Node>
											</Node>
										</Node>
										<Node score="0.288">
											<SimplePredicate field="double(Storage_GB)" operator="lessOrEqual" value="193.5"/>
										</Node>
										<Node score="0.23040000000000002">
											<SimplePredicate field="double(Network_Gb)" operator="lessOrEqual" value="11.25"/>
										</Node>
									</Node>
									<Node score="0.3785">
										<SimplePredicate field="double(vCPUs_Num)" operator="lessOrEqual" value="6.0"/>
									</Node>
								</Node>
								<Node score="0.7258">
									<SimplePredicate field="double(GPUs_Num)" operator="lessOrEqual" value="0.5"/>
									<Node score="0.6365">
										<SimplePredicate field="double(vCPUs_Num)" operator="lessOrEqual" value="12.0"/>
										<Node score="0.3072">
											<SimplePredicate field="double(Network_Gb)" operator="lessOrEqual" value="11.25"/>
											<Node score="0.344">
												<SimplePredicate field="double(Storage_GB)" operator="lessOrEqual" value="387.0"/>
											</Node>
										</Node>
										<Node score="0.4746">
											<SimplePredicate field="double(Network_Gb)" operator="lessOrEqual" value="32.5"/>
											<Node score="0.544">
												<SimplePredicate field="double(Storage_GB)" operator="lessOrEqual" value="387.0"/>
											</Node>
										</Node>
									</Node>
									<Node score="0.8064">
										<SimplePredicate field="double(Network_Gb)" operator="lessOrEqual" value="13.75"/>
										<Node score="0.768">
											<SimplePredicate field="double(Network_Gb)" operator="lessOrEqual" value="11.25"/>
										</Node>
									</Node>
								</Node>
								<Node score="0.9054">
									<SimplePredicate field="double(Storage_GB)" operator="lessOrEqual" value="350.0"/>
								</Node>
							</Node>
							<Node score="2.064">
								<SimplePredicate field="double(Network_Gb)" operator="lessOrEqual" value="16.875"/>
								<Node score="1.0886">
									<SimplePredicate field="double(vCPUs_Num)" operator="lessOrEqual" value="24.0"/>
									<Node score="0.6048">
										<SimplePredicate field="double(vCPUs_Num)" operator="lessOrEqual" value="12.0"/>
										<Node score="0.576">
											<SimplePredicate field="double(Storage_GB)" operator="lessOrEqual" value="387.0"/>
										</Node>
									</Node>
									<Node score="0.8543">
										<SimplePredicate field="double(Memory_GiB)" operator="lessOrEqual" value="96.0"/>
										<Node score="0.7232">
											<SimplePredicate field="double(Network_Gb)" operator="lessOrEqual" value="11.25"/>
											<Node score="0.867">
												<SimplePredicate field="double(Storage_GB)" operator="lessOrEqual" value="775.0"/>
												<Node score="0.824">
													<SimplePredicate field="double(GPUs_Num)" operator="lessOrEqual" value="0.5"/>
												</Node>
											</Node>
										</Node>
										<Node score="0.9492">
											<SimplePredicate field="double(Network_Gb)" operator="lessOrEqual" value="13.75"/>
										</Node>
									</Node>
									<Node score="0.9216">
										<SimplePredicate field="double(Network_Gb)" operator="lessOrEqual" value="11.25"/>
										<Node score="1.152">
											<SimplePredicate field="double(Storage_GB)" operator="lessOrEqual" value="775.0"/>
										</Node>
									</Node>
									<Node score="1.2096">
										<SimplePredicate field="double(Network_Gb)" operator="lessOrEqual" value="13.75"/>
									</Node>
								</Node>
								<Node score="1.8984">
									<SimplePredicate field="double(vCPUs_Num)" operator="lessOrEqual" value="40.0"/>
									<Node score="1.6128">
										<SimplePredicate field="double(Memory_GiB)" operator="lessOrEqual" value="96.0"/>
										<Node score="1.3760000000000001">
											<SimplePredicate field="double(Storage_GB)" operator="lessOrEqual" value="1550.0"/>
										</Node>
									</Node>
									<Node score="1.4464">
										<SimplePredicate field="double(Network_Gb)" operator="lessOrEqual" value="12.25"/>
										<Node score="1.808">
											<SimplePredicate field="double(Storage_GB)" operator="lessOrEqual" value="1550.0"/>
										</Node>
									</Node>
								</Node>
							</Node>
							<Node score="1.3232">
								<SimplePredicate field="double(Memory_GiB)" operator="lessOrEqual" value="80.0"/>
								<Node score="2.2421">
									<SimplePredicate field="double(Network_Gb)" operator="lessOrEqual" value="22.5"/>
								</Node>
								<Node score="1.088">
									<SimplePredicate field="double(GPUs_Num)" operator="lessOrEqual" value="0.5"/>
								</Node>
							</Node>
							<Node score="2.2312000000000003">
								<SimplePredicate field="double(vCPUs_Num)" operator="lessOrEqual" value="56.0"/>
								<Node score="2.1773">
									<SimplePredicate field="double(GPUs_Num)" operator="lessOrEqual" value="0.5"/>
									<Node score="1.336">
										<SimplePredicate field="double(Storage_GB)" operator="lessOrEqual" value="1725.0"/>
									</Node>
									<Node score="2.4192">
										<SimplePredicate field="double(Network_Gb)" operator="lessOrEqual" value="19.375"/>
									</Node>
									<Node score="1.8432">
										<SimplePredicate field="double(Network_Gb)" operator="lessOrEqual" value="21.25"/>
									</Node>
								</Node>
								<Node score="3.0042">
									<SimplePredicate field="double(vCPUs_Num)" operator="lessOrEqual" value="24.0"/>
								</Node>
							</Node>
							<Node score="2.4576">
								<SimplePredicate field="double(Network_Gb)" operator="lessOrEqual" value="27.5"/>
								<Node score="2.752">
									<SimplePredicate field="double(Network_Gb)" operator="lessOrEqual" value="22.5"/>
								</Node>
							</Node>
						</Node>
						<Node score="4.5286">
							<SimplePredicate field="double(vCPUs_Num)" operator="lessOrEqual" value="84.0"/>
							<Node score="4.3546">
								<SimplePredicate field="double(GPUs_Num)" operator="lessOrEqual" value="0.5"/>
								<Node score="3.4171">
									<SimplePredicate field="double(Memory_GiB)" operator="lessOrEqual" value="320.0"/>
									<Node score="2.672">
										<SimplePredicate field="double(vCPUs_Num)" operator="lessOrEqual" value="56.0"/>
										<Node score="1.6672">
											<SimplePredicate field="double(Storage_GB)" operator="lessOrEqual" value="718.5"/>
										</Node>
										<Node score="2.1773">
											<SimplePredicate field="double(Network_Gb)" operator="lessOrEqual" value="16.875"/>
											<Node score="2.712">
												<SimplePredicate field="double(Memory_GiB)" operator="lessOrEqual" value="224.0"/>
												<Node score="2.472">
													<SimplePredicate field="double(Network_Gb)" operator="lessOrEqual" value="11.0"/>
												</Node>
											</Node>
										</Node>
										<Node score="2.8476">
											<SimplePredicate field="double(Network_Gb)" operator="lessOrEqual" value="20.625"/>
										</Node>
										<Node score="2.5628">
											<SimplePredicate field="double(Network_Gb)" operator="lessOrEqual" value="23.75"/>
										</Node>
									</Node>
									<Node score="3.456">
										<SimplePredicate field="double(Storage_GB)" operator="lessOrEqual" value="2800.0"/>
									</Node>
									<Node score="3.1188000000000002">
										<SimplePredicate field="double(Network_Gb)" operator="lessOrEqual" value="27.5"/>
									</Node>
								</Node>
								<Node score="2.672">
									<SimplePredicate field="double(Storage_GB)" operator="lessOrEqual" value="2375.0"/>
									<Node score="3.3345">
										<SimplePredicate field="double(Storage_GB)" operator="lessOrEqual" value="1850.0"/>
										<Node score="3.456">
											<SimplePredicate field="double(Network_Gb)" operator="lessOrEqual" value="18.5"/>
										</Node>
									</Node>
								</Node>
								<Node score="3.9168">
									<SimplePredicate field="double(Network_Gb)" operator="lessOrEqual" value="27.5"/>
									<Node score="4.008">
										<SimplePredicate field="double(vCPUs_Num)" operator="lessOrEqual" value="56.0"/>
									</Node>
								</Node>
							</Node>
							<Node score="4.6016">
								<SimplePredicate field="double(Memory_GiB)" operator="lessOrEqual" value="224.0"/>
							</Node>
						</Node>
						<Node score="4.608">
							<SimplePredicate field="double(Memory_GiB)" operator="lessOrEqual" value="480.0"/>
							<Node score="4.128">
								<SimplePredicate field="double(Network_Gb)" operator="lessOrEqual" value="22.5"/>
							</Node>
						</Node>
						<Node score="6.288">
